#pragma once
namespace Eloquent {
    namespace ML {
        namespace Port {
            class SVM {
                public:
                    SVM() {
                    }

                    /**
                    * Predict class for features vector
                    */
                    int predict(float *x) {
                        float kernels[20] = { 0 };
                        float decisions[1] = { 0 };
                        int votes[2] = { 0 };
                        kernels[0] = compute_kernel(x,   75.0  , 82.0  , 85.0  , 131.0  , 188.0  , 193.0  , 197.0  , 201.0  , 205.0  , 168.0  , 137.0  , 177.0  , 185.0  , 176.0  , 169.0  , 112.0  , 106.0  , 170.0  , 169.0  , 169.0  , 80.0  , 83.0  , 91.0  , 151.0  , 187.0  , 144.0  , 179.0  , 210.0  , 202.0  , 106.0  , 57.0  , 71.0  , 128.0  , 180.0  , 175.0  , 103.0  , 123.0  , 172.0  , 173.0  , 171.0  , 88.0  , 81.0  , 99.0  , 169.0  , 192.0  , 152.0  , 161.0  , 193.0  , 109.0  , 111.0  , 138.0  , 106.0  , 50.0  , 107.0  , 179.0  , 95.0  , 141.0  , 172.0  , 175.0  , 171.0  , 142.0  , 119.0  , 118.0  , 183.0  , 202.0  , 200.0  , 198.0  , 175.0  , 70.0  , 122.0  , 155.0  , 118.0  , 62.0  , 34.0  , 139.0  , 93.0  , 155.0  , 173.0  , 177.0  , 170.0  , 183.0  , 178.0  , 166.0  , 184.0  , 204.0  , 212.0  , 219.0  , 185.0  , 78.0  , 86.0  , 92.0  , 45.0  , 52.0  , 25.0  , 100.0  , 88.0  , 166.0  , 173.0  , 178.0  , 169.0  , 190.0  , 194.0  , 197.0  , 195.0  , 208.0  , 214.0  , 219.0  , 200.0  , 147.0  , 150.0  , 114.0  , 102.0  , 81.0  , 33.0  , 104.0  , 91.0  , 174.0  , 174.0  , 177.0  , 168.0  , 188.0  , 192.0  , 198.0  , 204.0  , 208.0  , 213.0  , 219.0  , 191.0  , 150.0  , 93.0  , 98.0  , 149.0  , 96.0  , 65.0  , 132.0  , 90.0  , 177.0  , 175.0  , 175.0  , 166.0  , 186.0  , 192.0  , 196.0  , 201.0  , 206.0  , 211.0  , 217.0  , 189.0  , 98.0  , 85.0  , 77.0  , 90.0  , 58.0  , 86.0  , 108.0  , 100.0  , 175.0  , 174.0  , 173.0  , 165.0  , 184.0  , 189.0  , 194.0  , 199.0  , 203.0  , 207.0  , 211.0  , 206.0  , 94.0  , 75.0  , 57.0  , 44.0  , 79.0  , 163.0  , 96.0  , 109.0  , 169.0  , 174.0  , 172.0  , 165.0  , 181.0  , 185.0  , 191.0  , 195.0  , 200.0  , 204.0  , 207.0  , 203.0  , 95.0  , 45.0  , 40.0  , 30.0  , 88.0  , 177.0  , 93.0  , 120.0  , 162.0  , 136.0  , 74.0  , 79.0  , 176.0  , 174.0  , 168.0  , 168.0  , 163.0  , 151.0  , 150.0  , 142.0  , 106.0  , 45.0  , 40.0  , 39.0  , 49.0  , 95.0  , 78.0  , 104.0  , 125.0  , 73.0  , 37.0  , 34.0  , 128.0  , 115.0  , 112.0  , 116.0  , 107.0  , 111.0  , 106.0  , 123.0  , 109.0  , 54.0  , 47.0  , 46.0  , 46.0  , 68.0  , 88.0  , 93.0  , 81.0  , 58.0  , 44.0  , 38.0  , 84.0  , 76.0  , 90.0  , 87.0  , 87.0  , 97.0  , 99.0  , 119.0  , 105.0  , 58.0  , 42.0  , 44.0  , 49.0  , 80.0  , 89.0  , 96.0  , 96.0  , 72.0  , 37.0  , 34.0  , 79.0  , 76.0  , 72.0  , 65.0  , 79.0  , 88.0  , 103.0  , 96.0  , 100.0  , 71.0  , 49.0  , 46.0  , 59.0  , 78.0  , 78.0  , 86.0  , 81.0  , 75.0  , 43.0  , 31.0  , 123.0  , 127.0  , 135.0  , 132.0  , 111.0  , 103.0  , 77.0  , 71.0  , 84.0  , 74.0  , 51.0  , 53.0  , 61.0  , 69.0  , 71.0  , 71.0  , 57.0  , 54.0  , 45.0  , 36.0  , 117.0  , 116.0  , 119.0  , 140.0  , 142.0  , 132.0  , 107.0  , 85.0  , 74.0  , 70.0  , 66.0  , 62.0  , 58.0  , 63.0  , 67.0  , 59.0  , 47.0  , 52.0  , 44.0  , 44.0 );
                        kernels[1] = compute_kernel(x,   71.0  , 120.0  , 164.0  , 179.0  , 182.0  , 170.0  , 169.0  , 191.0  , 197.0  , 117.0  , 98.0  , 130.0  , 171.0  , 173.0  , 166.0  , 160.0  , 88.0  , 107.0  , 160.0  , 159.0  , 82.0  , 139.0  , 171.0  , 188.0  , 195.0  , 195.0  , 189.0  , 172.0  , 108.0  , 47.0  , 44.0  , 46.0  , 107.0  , 175.0  , 169.0  , 162.0  , 80.0  , 125.0  , 161.0  , 162.0  , 136.0  , 158.0  , 176.0  , 192.0  , 197.0  , 202.0  , 185.0  , 76.0  , 42.0  , 72.0  , 97.0  , 89.0  , 86.0  , 153.0  , 174.0  , 159.0  , 72.0  , 139.0  , 162.0  , 164.0  , 173.0  , 165.0  , 172.0  , 194.0  , 199.0  , 207.0  , 117.0  , 42.0  , 41.0  , 66.0  , 109.0  , 80.0  , 59.0  , 129.0  , 177.0  , 154.0  , 66.0  , 149.0  , 161.0  , 165.0  , 184.0  , 186.0  , 188.0  , 196.0  , 201.0  , 197.0  , 74.0  , 33.0  , 29.0  , 68.0  , 106.0  , 76.0  , 77.0  , 145.0  , 175.0  , 145.0  , 66.0  , 158.0  , 161.0  , 167.0  , 183.0  , 186.0  , 191.0  , 196.0  , 201.0  , 204.0  , 73.0  , 30.0  , 37.0  , 77.0  , 136.0  , 125.0  , 119.0  , 140.0  , 155.0  , 128.0  , 73.0  , 164.0  , 160.0  , 166.0  , 181.0  , 185.0  , 190.0  , 196.0  , 200.0  , 210.0  , 117.0  , 51.0  , 80.0  , 75.0  , 112.0  , 119.0  , 123.0  , 86.0  , 116.0  , 110.0  , 82.0  , 165.0  , 159.0  , 164.0  , 180.0  , 184.0  , 189.0  , 195.0  , 199.0  , 204.0  , 190.0  , 77.0  , 102.0  , 82.0  , 67.0  , 78.0  , 82.0  , 61.0  , 99.0  , 81.0  , 96.0  , 163.0  , 158.0  , 163.0  , 177.0  , 180.0  , 186.0  , 192.0  , 195.0  , 199.0  , 207.0  , 159.0  , 75.0  , 60.0  , 48.0  , 55.0  , 55.0  , 46.0  , 97.0  , 81.0  , 105.0  , 158.0  , 158.0  , 158.0  , 172.0  , 176.0  , 181.0  , 186.0  , 190.0  , 194.0  , 203.0  , 166.0  , 102.0  , 55.0  , 39.0  , 35.0  , 34.0  , 33.0  , 50.0  , 90.0  , 105.0  , 113.0  , 140.0  , 70.0  , 167.0  , 171.0  , 176.0  , 180.0  , 184.0  , 189.0  , 192.0  , 127.0  , 59.0  , 41.0  , 40.0  , 36.0  , 32.0  , 31.0  , 40.0  , 67.0  , 72.0  , 69.0  , 78.0  , 38.0  , 162.0  , 166.0  , 170.0  , 173.0  , 177.0  , 174.0  , 136.0  , 108.0  , 75.0  , 41.0  , 37.0  , 38.0  , 32.0  , 31.0  , 37.0  , 52.0  , 64.0  , 65.0  , 63.0  , 44.0  , 156.0  , 159.0  , 162.0  , 168.0  , 164.0  , 109.0  , 99.0  , 103.0  , 81.0  , 67.0  , 38.0  , 32.0  , 30.0  , 32.0  , 36.0  , 50.0  , 57.0  , 58.0  , 54.0  , 37.0  , 151.0  , 152.0  , 155.0  , 162.0  , 130.0  , 94.0  , 82.0  , 70.0  , 69.0  , 67.0  , 47.0  , 38.0  , 36.0  , 36.0  , 39.0  , 45.0  , 56.0  , 54.0  , 43.0  , 33.0  , 143.0  , 145.0  , 150.0  , 144.0  , 91.0  , 75.0  , 63.0  , 52.0  , 58.0  , 57.0  , 55.0  , 47.0  , 39.0  , 41.0  , 47.0  , 60.0  , 64.0  , 52.0  , 36.0  , 32.0  , 129.0  , 138.0  , 144.0  , 120.0  , 70.0  , 59.0  , 43.0  , 43.0  , 46.0  , 48.0  , 58.0  , 43.0  , 37.0  , 43.0  , 47.0  , 67.0  , 62.0  , 48.0  , 42.0  , 34.0 );
                        kernels[2] = compute_kernel(x,   77.0  , 84.0  , 86.0  , 130.0  , 188.0  , 193.0  , 198.0  , 201.0  , 207.0  , 168.0  , 135.0  , 178.0  , 185.0  , 176.0  , 169.0  , 114.0  , 108.0  , 169.0  , 169.0  , 169.0  , 82.0  , 84.0  , 90.0  , 150.0  , 187.0  , 146.0  , 180.0  , 211.0  , 186.0  , 91.0  , 53.0  , 69.0  , 125.0  , 178.0  , 175.0  , 105.0  , 124.0  , 172.0  , 173.0  , 171.0  , 89.0  , 82.0  , 98.0  , 169.0  , 193.0  , 151.0  , 161.0  , 182.0  , 79.0  , 92.0  , 111.0  , 84.0  , 47.0  , 103.0  , 177.0  , 96.0  , 141.0  , 172.0  , 175.0  , 171.0  , 141.0  , 119.0  , 118.0  , 182.0  , 201.0  , 200.0  , 200.0  , 141.0  , 71.0  , 141.0  , 160.0  , 146.0  , 80.0  , 37.0  , 139.0  , 92.0  , 154.0  , 173.0  , 176.0  , 170.0  , 182.0  , 176.0  , 167.0  , 183.0  , 204.0  , 212.0  , 220.0  , 145.0  , 79.0  , 69.0  , 110.0  , 87.0  , 59.0  , 27.0  , 104.0  , 88.0  , 165.0  , 173.0  , 177.0  , 169.0  , 189.0  , 193.0  , 197.0  , 195.0  , 208.0  , 212.0  , 220.0  , 169.0  , 121.0  , 91.0  , 120.0  , 48.0  , 48.0  , 37.0  , 113.0  , 90.0  , 173.0  , 174.0  , 176.0  , 168.0  , 187.0  , 192.0  , 198.0  , 204.0  , 208.0  , 212.0  , 220.0  , 170.0  , 153.0  , 162.0  , 130.0  , 104.0  , 95.0  , 81.0  , 136.0  , 90.0  , 177.0  , 175.0  , 176.0  , 165.0  , 187.0  , 192.0  , 195.0  , 201.0  , 206.0  , 211.0  , 218.0  , 180.0  , 127.0  , 118.0  , 61.0  , 113.0  , 87.0  , 92.0  , 110.0  , 100.0  , 175.0  , 174.0  , 173.0  , 164.0  , 185.0  , 189.0  , 193.0  , 199.0  , 204.0  , 207.0  , 212.0  , 204.0  , 97.0  , 80.0  , 68.0  , 57.0  , 60.0  , 144.0  , 98.0  , 108.0  , 169.0  , 173.0  , 172.0  , 165.0  , 181.0  , 184.0  , 190.0  , 195.0  , 201.0  , 204.0  , 208.0  , 205.0  , 91.0  , 64.0  , 50.0  , 34.0  , 80.0  , 177.0  , 95.0  , 120.0  , 162.0  , 135.0  , 76.0  , 80.0  , 177.0  , 175.0  , 170.0  , 168.0  , 166.0  , 155.0  , 156.0  , 147.0  , 97.0  , 41.0  , 36.0  , 32.0  , 48.0  , 102.0  , 78.0  , 104.0  , 125.0  , 72.0  , 38.0  , 35.0  , 130.0  , 116.0  , 112.0  , 116.0  , 109.0  , 110.0  , 106.0  , 124.0  , 102.0  , 50.0  , 41.0  , 42.0  , 42.0  , 55.0  , 76.0  , 86.0  , 79.0  , 58.0  , 43.0  , 37.0  , 84.0  , 77.0  , 89.0  , 87.0  , 86.0  , 97.0  , 94.0  , 120.0  , 97.0  , 52.0  , 42.0  , 41.0  , 42.0  , 67.0  , 80.0  , 90.0  , 92.0  , 66.0  , 37.0  , 34.0  , 76.0  , 75.0  , 72.0  , 65.0  , 83.0  , 83.0  , 102.0  , 97.0  , 94.0  , 67.0  , 44.0  , 40.0  , 49.0  , 69.0  , 73.0  , 83.0  , 83.0  , 79.0  , 42.0  , 31.0  , 122.0  , 125.0  , 134.0  , 131.0  , 111.0  , 102.0  , 74.0  , 72.0  , 83.0  , 67.0  , 45.0  , 44.0  , 54.0  , 61.0  , 66.0  , 71.0  , 59.0  , 53.0  , 44.0  , 35.0  , 116.0  , 116.0  , 117.0  , 140.0  , 142.0  , 131.0  , 107.0  , 84.0  , 74.0  , 72.0  , 65.0  , 55.0  , 51.0  , 58.0  , 63.0  , 60.0  , 46.0  , 51.0  , 44.0  , 44.0 );
                        kernels[3] = compute_kernel(x,   74.0  , 85.0  , 130.0  , 172.0  , 186.0  , 189.0  , 190.0  , 192.0  , 193.0  , 138.0  , 152.0  , 140.0  , 111.0  , 138.0  , 158.0  , 99.0  , 89.0  , 159.0  , 154.0  , 155.0  , 78.0  , 98.0  , 152.0  , 181.0  , 191.0  , 193.0  , 196.0  , 197.0  , 194.0  , 135.0  , 170.0  , 136.0  , 62.0  , 65.0  , 120.0  , 99.0  , 103.0  , 163.0  , 159.0  , 159.0  , 79.0  , 118.0  , 167.0  , 188.0  , 192.0  , 195.0  , 198.0  , 201.0  , 188.0  , 141.0  , 148.0  , 73.0  , 58.0  , 55.0  , 38.0  , 40.0  , 119.0  , 163.0  , 162.0  , 160.0  , 83.0  , 140.0  , 173.0  , 183.0  , 193.0  , 198.0  , 200.0  , 206.0  , 174.0  , 131.0  , 66.0  , 99.0  , 140.0  , 130.0  , 84.0  , 32.0  , 79.0  , 160.0  , 164.0  , 160.0  , 98.0  , 157.0  , 172.0  , 176.0  , 179.0  , 189.0  , 201.0  , 209.0  , 165.0  , 103.0  , 57.0  , 98.0  , 121.0  , 125.0  , 84.0  , 48.0  , 24.0  , 134.0  , 168.0  , 160.0  , 122.0  , 164.0  , 180.0  , 193.0  , 187.0  , 180.0  , 188.0  , 200.0  , 151.0  , 99.0  , 64.0  , 50.0  , 63.0  , 68.0  , 29.0  , 38.0  , 22.0  , 129.0  , 170.0  , 160.0  , 148.0  , 167.0  , 185.0  , 193.0  , 197.0  , 199.0  , 195.0  , 197.0  , 144.0  , 134.0  , 112.0  , 97.0  , 127.0  , 89.0  , 48.0  , 48.0  , 35.0  , 139.0  , 169.0  , 160.0  , 153.0  , 164.0  , 185.0  , 192.0  , 196.0  , 200.0  , 205.0  , 189.0  , 144.0  , 150.0  , 133.0  , 153.0  , 98.0  , 79.0  , 105.0  , 78.0  , 76.0  , 163.0  , 165.0  , 157.0  , 165.0  , 168.0  , 183.0  , 189.0  , 194.0  , 198.0  , 205.0  , 168.0  , 147.0  , 159.0  , 106.0  , 114.0  , 54.0  , 50.0  , 89.0  , 50.0  , 91.0  , 166.0  , 163.0  , 154.0  , 169.0  , 174.0  , 181.0  , 185.0  , 189.0  , 194.0  , 198.0  , 147.0  , 153.0  , 178.0  , 88.0  , 61.0  , 58.0  , 43.0  , 39.0  , 40.0  , 123.0  , 161.0  , 160.0  , 151.0  , 164.0  , 169.0  , 175.0  , 181.0  , 184.0  , 188.0  , 189.0  , 129.0  , 156.0  , 185.0  , 111.0  , 51.0  , 50.0  , 35.0  , 26.0  , 68.0  , 157.0  , 153.0  , 156.0  , 148.0  , 160.0  , 164.0  , 170.0  , 174.0  , 177.0  , 181.0  , 176.0  , 121.0  , 157.0  , 176.0  , 149.0  , 35.0  , 32.0  , 26.0  , 17.0  , 78.0  , 155.0  , 148.0  , 151.0  , 143.0  , 156.0  , 159.0  , 164.0  , 167.0  , 170.0  , 176.0  , 151.0  , 114.0  , 157.0  , 163.0  , 145.0  , 44.0  , 23.0  , 22.0  , 22.0  , 53.0  , 113.0  , 145.0  , 149.0  , 142.0  , 151.0  , 154.0  , 159.0  , 163.0  , 161.0  , 156.0  , 130.0  , 105.0  , 119.0  , 111.0  , 97.0  , 45.0  , 31.0  , 30.0  , 30.0  , 33.0  , 49.0  , 92.0  , 87.0  , 77.0  , 144.0  , 143.0  , 136.0  , 120.0  , 108.0  , 99.0  , 96.0  , 88.0  , 86.0  , 99.0  , 90.0  , 55.0  , 34.0  , 31.0  , 31.0  , 38.0  , 53.0  , 57.0  , 55.0  , 46.0  , 105.0  , 94.0  , 81.0  , 72.0  , 72.0  , 70.0  , 71.0  , 83.0  , 84.0  , 97.0  , 88.0  , 64.0  , 45.0  , 33.0  , 34.0  , 48.0  , 60.0  , 60.0  , 59.0  , 57.0 );
                        kernels[4] = compute_kernel(x,   74.0  , 132.0  , 159.0  , 167.0  , 166.0  , 176.0  , 180.0  , 190.0  , 180.0  , 125.0  , 159.0  , 172.0  , 169.0  , 165.0  , 160.0  , 143.0  , 65.0  , 143.0  , 153.0  , 157.0  , 85.0  , 150.0  , 164.0  , 185.0  , 181.0  , 172.0  , 171.0  , 183.0  , 170.0  , 130.0  , 171.0  , 178.0  , 174.0  , 170.0  , 164.0  , 138.0  , 67.0  , 153.0  , 156.0  , 160.0  , 109.0  , 162.0  , 171.0  , 189.0  , 190.0  , 192.0  , 187.0  , 186.0  , 160.0  , 138.0  , 182.0  , 188.0  , 181.0  , 172.0  , 166.0  , 130.0  , 75.0  , 159.0  , 156.0  , 161.0  , 146.0  , 161.0  , 175.0  , 189.0  , 191.0  , 194.0  , 197.0  , 201.0  , 154.0  , 153.0  , 154.0  , 121.0  , 160.0  , 177.0  , 168.0  , 118.0  , 84.0  , 162.0  , 158.0  , 161.0  , 173.0  , 165.0  , 179.0  , 190.0  , 192.0  , 195.0  , 199.0  , 202.0  , 144.0  , 129.0  , 86.0  , 85.0  , 61.0  , 137.0  , 173.0  , 104.0  , 96.0  , 163.0  , 158.0  , 161.0  , 177.0  , 180.0  , 185.0  , 190.0  , 194.0  , 196.0  , 199.0  , 196.0  , 138.0  , 84.0  , 90.0  , 125.0  , 69.0  , 60.0  , 168.0  , 91.0  , 109.0  , 162.0  , 159.0  , 160.0  , 174.0  , 179.0  , 184.0  , 189.0  , 192.0  , 196.0  , 199.0  , 187.0  , 137.0  , 120.0  , 106.0  , 95.0  , 61.0  , 59.0  , 161.0  , 70.0  , 126.0  , 160.0  , 159.0  , 158.0  , 173.0  , 176.0  , 181.0  , 186.0  , 189.0  , 193.0  , 199.0  , 171.0  , 137.0  , 131.0  , 106.0  , 86.0  , 97.0  , 91.0  , 138.0  , 59.0  , 135.0  , 156.0  , 159.0  , 157.0  , 170.0  , 174.0  , 179.0  , 182.0  , 185.0  , 188.0  , 196.0  , 151.0  , 145.0  , 135.0  , 71.0  , 60.0  , 62.0  , 146.0  , 127.0  , 54.0  , 139.0  , 151.0  , 159.0  , 157.0  , 165.0  , 169.0  , 173.0  , 177.0  , 181.0  , 185.0  , 192.0  , 132.0  , 150.0  , 157.0  , 45.0  , 30.0  , 84.0  , 169.0  , 134.0  , 56.0  , 136.0  , 145.0  , 141.0  , 105.0  , 162.0  , 164.0  , 168.0  , 172.0  , 167.0  , 154.0  , 140.0  , 116.0  , 128.0  , 129.0  , 66.0  , 36.0  , 75.0  , 150.0  , 123.0  , 57.0  , 128.0  , 133.0  , 80.0  , 26.0  , 123.0  , 132.0  , 135.0  , 121.0  , 99.0  , 90.0  , 84.0  , 99.0  , 113.0  , 113.0  , 83.0  , 60.0  , 64.0  , 105.0  , 98.0  , 47.0  , 72.0  , 72.0  , 49.0  , 36.0  , 86.0  , 83.0  , 72.0  , 60.0  , 59.0  , 59.0  , 71.0  , 94.0  , 101.0  , 108.0  , 95.0  , 83.0  , 91.0  , 91.0  , 85.0  , 71.0  , 63.0  , 61.0  , 49.0  , 35.0  , 62.0  , 70.0  , 82.0  , 55.0  , 34.0  , 52.0  , 67.0  , 89.0  , 89.0  , 96.0  , 82.0  , 84.0  , 85.0  , 81.0  , 71.0  , 69.0  , 67.0  , 55.0  , 38.0  , 29.0  , 130.0  , 139.0  , 147.0  , 107.0  , 60.0  , 62.0  , 65.0  , 83.0  , 79.0  , 61.0  , 69.0  , 78.0  , 74.0  , 69.0  , 57.0  , 54.0  , 49.0  , 41.0  , 34.0  , 24.0  , 129.0  , 130.0  , 131.0  , 132.0  , 134.0  , 133.0  , 79.0  , 76.0  , 65.0  , 55.0  , 73.0  , 64.0  , 52.0  , 52.0  , 41.0  , 47.0  , 48.0  , 43.0  , 33.0  , 23.0 );
                        kernels[5] = compute_kernel(x,   82.0  , 141.0  , 166.0  , 177.0  , 170.0  , 179.0  , 185.0  , 198.0  , 185.0  , 131.0  , 168.0  , 183.0  , 172.0  , 174.0  , 169.0  , 149.0  , 69.0  , 149.0  , 160.0  , 164.0  , 92.0  , 158.0  , 172.0  , 194.0  , 192.0  , 184.0  , 179.0  , 189.0  , 177.0  , 136.0  , 181.0  , 132.0  , 69.0  , 88.0  , 142.0  , 147.0  , 70.0  , 159.0  , 163.0  , 168.0  , 122.0  , 170.0  , 179.0  , 196.0  , 197.0  , 201.0  , 198.0  , 199.0  , 166.0  , 148.0  , 116.0  , 79.0  , 111.0  , 83.0  , 54.0  , 115.0  , 82.0  , 166.0  , 163.0  , 168.0  , 157.0  , 165.0  , 181.0  , 196.0  , 199.0  , 203.0  , 205.0  , 211.0  , 162.0  , 143.0  , 63.0  , 93.0  , 119.0  , 114.0  , 58.0  , 46.0  , 94.0  , 170.0  , 165.0  , 169.0  , 183.0  , 177.0  , 187.0  , 197.0  , 201.0  , 204.0  , 208.0  , 212.0  , 148.0  , 149.0  , 89.0  , 88.0  , 98.0  , 60.0  , 41.0  , 25.0  , 104.0  , 170.0  , 166.0  , 168.0  , 183.0  , 187.0  , 192.0  , 197.0  , 202.0  , 206.0  , 210.0  , 204.0  , 144.0  , 166.0  , 126.0  , 159.0  , 119.0  , 96.0  , 82.0  , 42.0  , 118.0  , 169.0  , 167.0  , 167.0  , 180.0  , 185.0  , 191.0  , 196.0  , 201.0  , 206.0  , 211.0  , 195.0  , 143.0  , 181.0  , 122.0  , 115.0  , 71.0  , 82.0  , 86.0  , 56.0  , 134.0  , 167.0  , 167.0  , 166.0  , 178.0  , 183.0  , 188.0  , 194.0  , 198.0  , 204.0  , 212.0  , 178.0  , 144.0  , 195.0  , 131.0  , 70.0  , 70.0  , 43.0  , 63.0  , 62.0  , 142.0  , 164.0  , 166.0  , 163.0  , 177.0  , 180.0  , 187.0  , 192.0  , 196.0  , 199.0  , 208.0  , 158.0  , 151.0  , 196.0  , 138.0  , 37.0  , 42.0  , 40.0  , 114.0  , 61.0  , 145.0  , 158.0  , 166.0  , 166.0  , 173.0  , 175.0  , 181.0  , 187.0  , 192.0  , 198.0  , 201.0  , 140.0  , 150.0  , 171.0  , 133.0  , 65.0  , 32.0  , 57.0  , 139.0  , 61.0  , 144.0  , 152.0  , 140.0  , 90.0  , 168.0  , 170.0  , 175.0  , 181.0  , 187.0  , 165.0  , 145.0  , 131.0  , 133.0  , 138.0  , 122.0  , 94.0  , 48.0  , 49.0  , 93.0  , 64.0  , 125.0  , 132.0  , 76.0  , 30.0  , 162.0  , 167.0  , 170.0  , 177.0  , 145.0  , 108.0  , 117.0  , 120.0  , 133.0  , 132.0  , 123.0  , 91.0  , 62.0  , 49.0  , 67.0  , 76.0  , 76.0  , 72.0  , 54.0  , 39.0  , 157.0  , 159.0  , 166.0  , 148.0  , 93.0  , 95.0  , 89.0  , 115.0  , 126.0  , 123.0  , 119.0  , 110.0  , 86.0  , 86.0  , 81.0  , 80.0  , 79.0  , 70.0  , 53.0  , 38.0  , 151.0  , 153.0  , 152.0  , 95.0  , 79.0  , 79.0  , 81.0  , 110.0  , 108.0  , 111.0  , 110.0  , 99.0  , 87.0  , 88.0  , 82.0  , 78.0  , 65.0  , 52.0  , 39.0  , 29.0  , 144.0  , 146.0  , 105.0  , 68.0  , 71.0  , 61.0  , 73.0  , 87.0  , 93.0  , 103.0  , 79.0  , 68.0  , 78.0  , 76.0  , 75.0  , 72.0  , 52.0  , 34.0  , 36.0  , 26.0  , 138.0  , 134.0  , 74.0  , 65.0  , 63.0  , 48.0  , 58.0  , 71.0  , 89.0  , 76.0  , 39.0  , 64.0  , 73.0  , 69.0  , 66.0  , 64.0  , 38.0  , 30.0  , 34.0  , 23.0 );
                        kernels[6] = compute_kernel(x,   82.0  , 143.0  , 165.0  , 180.0  , 170.0  , 175.0  , 182.0  , 196.0  , 186.0  , 108.0  , 135.0  , 177.0  , 179.0  , 172.0  , 166.0  , 150.0  , 70.0  , 148.0  , 160.0  , 164.0  , 93.0  , 158.0  , 174.0  , 193.0  , 193.0  , 185.0  , 178.0  , 187.0  , 167.0  , 80.0  , 67.0  , 81.0  , 165.0  , 179.0  , 170.0  , 146.0  , 70.0  , 158.0  , 162.0  , 168.0  , 125.0  , 168.0  , 180.0  , 196.0  , 197.0  , 199.0  , 197.0  , 199.0  , 124.0  , 115.0  , 106.0  , 42.0  , 84.0  , 183.0  , 173.0  , 136.0  , 78.0  , 166.0  , 162.0  , 168.0  , 161.0  , 164.0  , 181.0  , 196.0  , 199.0  , 202.0  , 204.0  , 211.0  , 141.0  , 91.0  , 76.0  , 59.0  , 56.0  , 180.0  , 176.0  , 125.0  , 89.0  , 170.0  , 164.0  , 169.0  , 185.0  , 180.0  , 189.0  , 196.0  , 199.0  , 202.0  , 206.0  , 209.0  , 146.0  , 99.0  , 130.0  , 73.0  , 105.0  , 187.0  , 177.0  , 108.0  , 101.0  , 171.0  , 166.0  , 168.0  , 185.0  , 187.0  , 192.0  , 196.0  , 200.0  , 203.0  , 206.0  , 204.0  , 107.0  , 69.0  , 67.0  , 76.0  , 173.0  , 185.0  , 175.0  , 91.0  , 114.0  , 170.0  , 166.0  , 167.0  , 182.0  , 185.0  , 190.0  , 195.0  , 198.0  , 202.0  , 206.0  , 194.0  , 119.0  , 53.0  , 33.0  , 106.0  , 197.0  , 178.0  , 170.0  , 73.0  , 130.0  , 167.0  , 165.0  , 165.0  , 180.0  , 184.0  , 189.0  , 193.0  , 195.0  , 199.0  , 208.0  , 178.0  , 127.0  , 66.0  , 48.0  , 89.0  , 158.0  , 159.0  , 131.0  , 62.0  , 141.0  , 163.0  , 165.0  , 163.0  , 178.0  , 181.0  , 186.0  , 190.0  , 193.0  , 195.0  , 176.0  , 144.0  , 131.0  , 93.0  , 78.0  , 110.0  , 125.0  , 130.0  , 124.0  , 59.0  , 144.0  , 157.0  , 166.0  , 163.0  , 174.0  , 177.0  , 181.0  , 184.0  , 190.0  , 161.0  , 117.0  , 121.0  , 133.0  , 123.0  , 115.0  , 122.0  , 123.0  , 109.0  , 100.0  , 86.0  , 140.0  , 151.0  , 137.0  , 80.0  , 168.0  , 171.0  , 175.0  , 178.0  , 174.0  , 112.0  , 94.0  , 112.0  , 122.0  , 106.0  , 114.0  , 116.0  , 114.0  , 86.0  , 79.0  , 96.0  , 136.0  , 137.0  , 72.0  , 29.0  , 162.0  , 166.0  , 167.0  , 171.0  , 136.0  , 90.0  , 71.0  , 99.0  , 85.0  , 93.0  , 109.0  , 88.0  , 94.0  , 65.0  , 78.0  , 82.0  , 118.0  , 100.0  , 40.0  , 37.0  , 157.0  , 158.0  , 160.0  , 160.0  , 114.0  , 86.0  , 66.0  , 93.0  , 73.0  , 97.0  , 57.0  , 70.0  , 89.0  , 73.0  , 82.0  , 77.0  , 90.0  , 62.0  , 38.0  , 36.0  , 151.0  , 151.0  , 153.0  , 157.0  , 131.0  , 81.0  , 59.0  , 87.0  , 88.0  , 52.0  , 36.0  , 43.0  , 67.0  , 66.0  , 87.0  , 46.0  , 44.0  , 44.0  , 38.0  , 34.0  , 142.0  , 142.0  , 145.0  , 145.0  , 112.0  , 75.0  , 75.0  , 72.0  , 64.0  , 43.0  , 46.0  , 59.0  , 59.0  , 67.0  , 89.0  , 46.0  , 31.0  , 36.0  , 34.0  , 30.0  , 134.0  , 134.0  , 137.0  , 123.0  , 81.0  , 67.0  , 88.0  , 96.0  , 85.0  , 74.0  , 69.0  , 58.0  , 44.0  , 53.0  , 74.0  , 45.0  , 31.0  , 28.0  , 29.0  , 26.0 );
                        kernels[7] = compute_kernel(x,   72.0  , 119.0  , 163.0  , 179.0  , 180.0  , 167.0  , 171.0  , 187.0  , 191.0  , 135.0  , 154.0  , 181.0  , 176.0  , 169.0  , 165.0  , 158.0  , 87.0  , 108.0  , 158.0  , 157.0  , 80.0  , 138.0  , 171.0  , 187.0  , 194.0  , 193.0  , 184.0  , 179.0  , 188.0  , 128.0  , 129.0  , 127.0  , 168.0  , 176.0  , 169.0  , 160.0  , 81.0  , 125.0  , 160.0  , 161.0  , 132.0  , 157.0  , 176.0  , 191.0  , 196.0  , 197.0  , 198.0  , 198.0  , 186.0  , 63.0  , 61.0  , 85.0  , 106.0  , 178.0  , 171.0  , 157.0  , 72.0  , 137.0  , 160.0  , 162.0  , 172.0  , 165.0  , 172.0  , 193.0  , 197.0  , 200.0  , 202.0  , 207.0  , 165.0  , 47.0  , 110.0  , 94.0  , 87.0  , 170.0  , 173.0  , 152.0  , 66.0  , 148.0  , 160.0  , 164.0  , 185.0  , 185.0  , 187.0  , 195.0  , 199.0  , 200.0  , 202.0  , 207.0  , 155.0  , 102.0  , 127.0  , 124.0  , 117.0  , 176.0  , 173.0  , 143.0  , 66.0  , 156.0  , 159.0  , 164.0  , 183.0  , 186.0  , 191.0  , 196.0  , 198.0  , 200.0  , 202.0  , 207.0  , 141.0  , 81.0  , 96.0  , 97.0  , 99.0  , 181.0  , 175.0  , 128.0  , 74.0  , 163.0  , 158.0  , 163.0  , 181.0  , 184.0  , 189.0  , 195.0  , 198.0  , 200.0  , 201.0  , 203.0  , 142.0  , 120.0  , 60.0  , 49.0  , 127.0  , 180.0  , 165.0  , 107.0  , 81.0  , 164.0  , 157.0  , 162.0  , 180.0  , 183.0  , 188.0  , 193.0  , 195.0  , 197.0  , 201.0  , 193.0  , 134.0  , 123.0  , 74.0  , 65.0  , 172.0  , 176.0  , 138.0  , 79.0  , 96.0  , 160.0  , 156.0  , 160.0  , 177.0  , 180.0  , 185.0  , 189.0  , 191.0  , 193.0  , 169.0  , 141.0  , 133.0  , 122.0  , 87.0  , 68.0  , 87.0  , 126.0  , 156.0  , 75.0  , 101.0  , 154.0  , 155.0  , 158.0  , 172.0  , 175.0  , 179.0  , 182.0  , 187.0  , 160.0  , 107.0  , 118.0  , 127.0  , 120.0  , 109.0  , 109.0  , 101.0  , 90.0  , 123.0  , 72.0  , 111.0  , 143.0  , 144.0  , 76.0  , 166.0  , 170.0  , 174.0  , 176.0  , 179.0  , 112.0  , 82.0  , 102.0  , 114.0  , 108.0  , 96.0  , 101.0  , 100.0  , 76.0  , 81.0  , 55.0  , 115.0  , 133.0  , 98.0  , 34.0  , 161.0  , 165.0  , 166.0  , 170.0  , 153.0  , 81.0  , 68.0  , 75.0  , 90.0  , 79.0  , 88.0  , 90.0  , 75.0  , 63.0  , 71.0  , 50.0  , 118.0  , 112.0  , 49.0  , 35.0  , 155.0  , 158.0  , 159.0  , 164.0  , 119.0  , 70.0  , 54.0  , 67.0  , 84.0  , 67.0  , 99.0  , 50.0  , 52.0  , 73.0  , 71.0  , 41.0  , 74.0  , 72.0  , 38.0  , 35.0  , 149.0  , 151.0  , 153.0  , 154.0  , 143.0  , 69.0  , 48.0  , 70.0  , 74.0  , 94.0  , 70.0  , 32.0  , 46.0  , 85.0  , 58.0  , 20.0  , 34.0  , 39.0  , 38.0  , 33.0  , 141.0  , 144.0  , 145.0  , 145.0  , 131.0  , 62.0  , 49.0  , 77.0  , 64.0  , 58.0  , 51.0  , 44.0  , 65.0  , 74.0  , 54.0  , 22.0  , 33.0  , 31.0  , 33.0  , 30.0  , 131.0  , 136.0  , 137.0  , 137.0  , 102.0  , 48.0  , 56.0  , 84.0  , 70.0  , 65.0  , 86.0  , 68.0  , 60.0  , 65.0  , 58.0  , 30.0  , 37.0  , 26.0  , 27.0  , 26.0 );
                        kernels[8] = compute_kernel(x,   71.0  , 120.0  , 164.0  , 179.0  , 181.0  , 170.0  , 171.0  , 190.0  , 187.0  , 88.0  , 47.0  , 42.0  , 34.0  , 44.0  , 108.0  , 162.0  , 87.0  , 107.0  , 160.0  , 158.0  , 83.0  , 140.0  , 171.0  , 188.0  , 195.0  , 195.0  , 187.0  , 185.0  , 103.0  , 53.0  , 100.0  , 114.0  , 97.0  , 56.0  , 34.0  , 125.0  , 84.0  , 125.0  , 162.0  , 162.0  , 134.0  , 157.0  , 176.0  , 192.0  , 197.0  , 199.0  , 204.0  , 176.0  , 43.0  , 83.0  , 126.0  , 139.0  , 127.0  , 100.0  , 40.0  , 62.0  , 72.0  , 139.0  , 162.0  , 164.0  , 172.0  , 164.0  , 172.0  , 194.0  , 199.0  , 203.0  , 210.0  , 164.0  , 42.0  , 90.0  , 66.0  , 74.0  , 109.0  , 79.0  , 49.0  , 27.0  , 53.0  , 150.0  , 161.0  , 165.0  , 184.0  , 186.0  , 188.0  , 196.0  , 200.0  , 203.0  , 210.0  , 180.0  , 83.0  , 108.0  , 59.0  , 73.0  , 82.0  , 27.0  , 34.0  , 26.0  , 59.0  , 158.0  , 161.0  , 165.0  , 182.0  , 186.0  , 191.0  , 196.0  , 200.0  , 204.0  , 212.0  , 172.0  , 107.0  , 161.0  , 135.0  , 153.0  , 104.0  , 43.0  , 47.0  , 58.0  , 77.0  , 164.0  , 160.0  , 165.0  , 179.0  , 184.0  , 190.0  , 195.0  , 200.0  , 205.0  , 212.0  , 182.0  , 116.0  , 150.0  , 159.0  , 120.0  , 96.0  , 100.0  , 85.0  , 82.0  , 84.0  , 165.0  , 159.0  , 165.0  , 179.0  , 183.0  , 189.0  , 195.0  , 199.0  , 203.0  , 208.0  , 191.0  , 98.0  , 114.0  , 115.0  , 61.0  , 50.0  , 93.0  , 78.0  , 72.0  , 98.0  , 163.0  , 158.0  , 163.0  , 176.0  , 180.0  , 186.0  , 192.0  , 195.0  , 200.0  , 206.0  , 187.0  , 96.0  , 76.0  , 75.0  , 72.0  , 44.0  , 47.0  , 100.0  , 80.0  , 102.0  , 155.0  , 157.0  , 158.0  , 172.0  , 176.0  , 181.0  , 185.0  , 193.0  , 193.0  , 173.0  , 137.0  , 98.0  , 63.0  , 72.0  , 51.0  , 41.0  , 36.0  , 102.0  , 71.0  , 116.0  , 145.0  , 145.0  , 71.0  , 166.0  , 171.0  , 175.0  , 182.0  , 168.0  , 136.0  , 115.0  , 111.0  , 97.0  , 48.0  , 46.0  , 42.0  , 30.0  , 32.0  , 33.0  , 42.0  , 104.0  , 134.0  , 96.0  , 32.0  , 161.0  , 165.0  , 172.0  , 154.0  , 108.0  , 113.0  , 120.0  , 92.0  , 101.0  , 52.0  , 33.0  , 31.0  , 33.0  , 33.0  , 35.0  , 42.0  , 55.0  , 88.0  , 50.0  , 34.0  , 155.0  , 160.0  , 160.0  , 111.0  , 86.0  , 95.0  , 81.0  , 84.0  , 94.0  , 46.0  , 37.0  , 38.0  , 37.0  , 33.0  , 35.0  , 42.0  , 51.0  , 61.0  , 55.0  , 35.0  , 149.0  , 154.0  , 133.0  , 83.0  , 73.0  , 67.0  , 49.0  , 71.0  , 74.0  , 55.0  , 31.0  , 28.0  , 27.0  , 31.0  , 33.0  , 40.0  , 51.0  , 57.0  , 60.0  , 47.0  , 141.0  , 147.0  , 109.0  , 69.0  , 67.0  , 47.0  , 43.0  , 49.0  , 62.0  , 57.0  , 34.0  , 26.0  , 29.0  , 28.0  , 33.0  , 39.0  , 49.0  , 47.0  , 51.0  , 49.0  , 126.0  , 138.0  , 90.0  , 57.0  , 45.0  , 33.0  , 33.0  , 40.0  , 57.0  , 59.0  , 39.0  , 31.0  , 28.0  , 27.0  , 32.0  , 39.0  , 42.0  , 47.0  , 46.0  , 38.0 );
                        kernels[9] = compute_kernel(x,   73.0  , 122.0  , 164.0  , 181.0  , 182.0  , 171.0  , 173.0  , 189.0  , 193.0  , 136.0  , 153.0  , 179.0  , 177.0  , 172.0  , 166.0  , 160.0  , 88.0  , 109.0  , 162.0  , 159.0  , 83.0  , 141.0  , 171.0  , 188.0  , 196.0  , 196.0  , 188.0  , 183.0  , 190.0  , 133.0  , 169.0  , 189.0  , 184.0  , 178.0  , 170.0  , 162.0  , 80.0  , 126.0  , 162.0  , 162.0  , 135.0  , 159.0  , 176.0  , 193.0  , 197.0  , 199.0  , 202.0  , 202.0  , 191.0  , 136.0  , 146.0  , 156.0  , 170.0  , 181.0  , 173.0  , 159.0  , 72.0  , 139.0  , 162.0  , 164.0  , 173.0  , 165.0  , 173.0  , 194.0  , 198.0  , 203.0  , 206.0  , 211.0  , 186.0  , 91.0  , 52.0  , 48.0  , 54.0  , 99.0  , 168.0  , 155.0  , 66.0  , 150.0  , 161.0  , 165.0  , 185.0  , 186.0  , 189.0  , 196.0  , 201.0  , 204.0  , 207.0  , 215.0  , 149.0  , 60.0  , 107.0  , 111.0  , 67.0  , 33.0  , 92.0  , 147.0  , 67.0  , 159.0  , 161.0  , 166.0  , 183.0  , 186.0  , 191.0  , 197.0  , 202.0  , 206.0  , 208.0  , 217.0  , 114.0  , 77.0  , 124.0  , 126.0  , 81.0  , 43.0  , 43.0  , 119.0  , 76.0  , 165.0  , 161.0  , 166.0  , 181.0  , 185.0  , 190.0  , 196.0  , 201.0  , 206.0  , 209.0  , 213.0  , 108.0  , 62.0  , 75.0  , 82.0  , 47.0  , 49.0  , 48.0  , 96.0  , 84.0  , 166.0  , 160.0  , 165.0  , 180.0  , 184.0  , 189.0  , 195.0  , 200.0  , 203.0  , 208.0  , 204.0  , 124.0  , 114.0  , 129.0  , 117.0  , 96.0  , 84.0  , 74.0  , 82.0  , 98.0  , 163.0  , 159.0  , 164.0  , 177.0  , 181.0  , 187.0  , 193.0  , 197.0  , 201.0  , 205.0  , 183.0  , 123.0  , 144.0  , 118.0  , 99.0  , 135.0  , 79.0  , 94.0  , 82.0  , 104.0  , 155.0  , 157.0  , 159.0  , 173.0  , 176.0  , 181.0  , 187.0  , 192.0  , 196.0  , 203.0  , 161.0  , 130.0  , 102.0  , 70.0  , 62.0  , 75.0  , 61.0  , 141.0  , 73.0  , 116.0  , 145.0  , 146.0  , 70.0  , 167.0  , 171.0  , 176.0  , 181.0  , 186.0  , 188.0  , 196.0  , 139.0  , 137.0  , 84.0  , 54.0  , 49.0  , 37.0  , 42.0  , 75.0  , 59.0  , 118.0  , 135.0  , 94.0  , 34.0  , 162.0  , 165.0  , 170.0  , 174.0  , 178.0  , 181.0  , 188.0  , 131.0  , 104.0  , 77.0  , 42.0  , 37.0  , 32.0  , 36.0  , 44.0  , 67.0  , 85.0  , 101.0  , 51.0  , 36.0  , 155.0  , 159.0  , 164.0  , 168.0  , 170.0  , 167.0  , 145.0  , 111.0  , 90.0  , 88.0  , 43.0  , 33.0  , 37.0  , 37.0  , 48.0  , 67.0  , 76.0  , 74.0  , 59.0  , 38.0  , 150.0  , 152.0  , 157.0  , 160.0  , 162.0  , 127.0  , 87.0  , 86.0  , 84.0  , 87.0  , 47.0  , 30.0  , 31.0  , 31.0  , 47.0  , 62.0  , 68.0  , 53.0  , 57.0  , 42.0  , 143.0  , 145.0  , 150.0  , 153.0  , 135.0  , 94.0  , 79.0  , 67.0  , 64.0  , 62.0  , 53.0  , 28.0  , 26.0  , 32.0  , 45.0  , 55.0  , 54.0  , 51.0  , 47.0  , 38.0  , 129.0  , 138.0  , 142.0  , 142.0  , 100.0  , 71.0  , 60.0  , 48.0  , 47.0  , 46.0  , 51.0  , 37.0  , 31.0  , 33.0  , 42.0  , 46.0  , 43.0  , 41.0  , 42.0  , 32.0 );
                        kernels[10] = compute_kernel(x,   67.0  , 111.0  , 155.0  , 168.0  , 169.0  , 159.0  , 160.0  , 176.0  , 180.0  , 128.0  , 143.0  , 165.0  , 164.0  , 160.0  , 156.0  , 151.0  , 83.0  , 101.0  , 151.0  , 149.0  , 76.0  , 129.0  , 161.0  , 176.0  , 183.0  , 183.0  , 175.0  , 170.0  , 177.0  , 125.0  , 155.0  , 175.0  , 172.0  , 169.0  , 159.0  , 151.0  , 76.0  , 118.0  , 152.0  , 152.0  , 125.0  , 148.0  , 165.0  , 180.0  , 185.0  , 186.0  , 188.0  , 189.0  , 179.0  , 128.0  , 167.0  , 126.0  , 82.0  , 112.0  , 153.0  , 150.0  , 66.0  , 130.0  , 151.0  , 153.0  , 162.0  , 156.0  , 163.0  , 182.0  , 186.0  , 190.0  , 192.0  , 196.0  , 172.0  , 135.0  , 120.0  , 73.0  , 87.0  , 55.0  , 68.0  , 138.0  , 63.0  , 139.0  , 151.0  , 155.0  , 174.0  , 174.0  , 177.0  , 184.0  , 187.0  , 191.0  , 194.0  , 198.0  , 157.0  , 132.0  , 68.0  , 98.0  , 131.0  , 92.0  , 37.0  , 78.0  , 67.0  , 148.0  , 150.0  , 155.0  , 171.0  , 175.0  , 179.0  , 183.0  , 188.0  , 191.0  , 195.0  , 199.0  , 146.0  , 139.0  , 83.0  , 79.0  , 108.0  , 54.0  , 39.0  , 55.0  , 74.0  , 154.0  , 150.0  , 154.0  , 169.0  , 174.0  , 177.0  , 182.0  , 188.0  , 191.0  , 195.0  , 197.0  , 134.0  , 151.0  , 144.0  , 182.0  , 179.0  , 135.0  , 82.0  , 56.0  , 80.0  , 154.0  , 149.0  , 154.0  , 168.0  , 171.0  , 175.0  , 181.0  , 185.0  , 189.0  , 194.0  , 189.0  , 129.0  , 159.0  , 159.0  , 175.0  , 140.0  , 143.0  , 98.0  , 58.0  , 92.0  , 152.0  , 147.0  , 152.0  , 166.0  , 168.0  , 173.0  , 177.0  , 182.0  , 186.0  , 191.0  , 170.0  , 125.0  , 169.0  , 164.0  , 142.0  , 133.0  , 117.0  , 109.0  , 71.0  , 96.0  , 145.0  , 146.0  , 148.0  , 163.0  , 164.0  , 169.0  , 173.0  , 177.0  , 182.0  , 190.0  , 150.0  , 127.0  , 170.0  , 165.0  , 98.0  , 88.0  , 74.0  , 101.0  , 69.0  , 106.0  , 136.0  , 135.0  , 66.0  , 157.0  , 159.0  , 163.0  , 168.0  , 172.0  , 177.0  , 183.0  , 133.0  , 132.0  , 167.0  , 160.0  , 68.0  , 45.0  , 40.0  , 52.0  , 67.0  , 105.0  , 120.0  , 90.0  , 31.0  , 152.0  , 155.0  , 158.0  , 162.0  , 165.0  , 169.0  , 172.0  , 114.0  , 136.0  , 147.0  , 124.0  , 82.0  , 52.0  , 47.0  , 57.0  , 86.0  , 84.0  , 78.0  , 65.0  , 42.0  , 146.0  , 149.0  , 153.0  , 157.0  , 160.0  , 163.0  , 160.0  , 105.0  , 119.0  , 110.0  , 106.0  , 98.0  , 74.0  , 64.0  , 78.0  , 83.0  , 79.0  , 69.0  , 58.0  , 50.0  , 141.0  , 142.0  , 146.0  , 149.0  , 152.0  , 155.0  , 150.0  , 107.0  , 95.0  , 97.0  , 94.0  , 95.0  , 84.0  , 76.0  , 76.0  , 73.0  , 70.0  , 61.0  , 46.0  , 44.0  , 133.0  , 135.0  , 139.0  , 142.0  , 144.0  , 147.0  , 116.0  , 88.0  , 74.0  , 76.0  , 79.0  , 80.0  , 78.0  , 66.0  , 62.0  , 63.0  , 62.0  , 51.0  , 33.0  , 36.0  , 124.0  , 130.0  , 133.0  , 134.0  , 137.0  , 127.0  , 85.0  , 72.0  , 59.0  , 60.0  , 66.0  , 69.0  , 68.0  , 52.0  , 59.0  , 51.0  , 47.0  , 46.0  , 30.0  , 36.0 );
                        kernels[11] = compute_kernel(x,   70.0  , 117.0  , 158.0  , 170.0  , 172.0  , 161.0  , 162.0  , 178.0  , 182.0  , 128.0  , 145.0  , 168.0  , 165.0  , 162.0  , 157.0  , 153.0  , 81.0  , 103.0  , 152.0  , 149.0  , 82.0  , 135.0  , 164.0  , 179.0  , 185.0  , 184.0  , 178.0  , 172.0  , 179.0  , 125.0  , 158.0  , 177.0  , 176.0  , 168.0  , 160.0  , 153.0  , 75.0  , 120.0  , 152.0  , 153.0  , 130.0  , 151.0  , 168.0  , 183.0  , 187.0  , 188.0  , 191.0  , 190.0  , 179.0  , 128.0  , 171.0  , 152.0  , 127.0  , 157.0  , 165.0  , 150.0  , 66.0  , 131.0  , 153.0  , 155.0  , 164.0  , 158.0  , 165.0  , 185.0  , 188.0  , 191.0  , 194.0  , 198.0  , 171.0  , 136.0  , 141.0  , 70.0  , 49.0  , 47.0  , 121.0  , 148.0  , 62.0  , 142.0  , 152.0  , 156.0  , 175.0  , 178.0  , 180.0  , 187.0  , 189.0  , 192.0  , 194.0  , 200.0  , 156.0  , 145.0  , 94.0  , 119.0  , 128.0  , 52.0  , 39.0  , 120.0  , 65.0  , 151.0  , 152.0  , 156.0  , 174.0  , 177.0  , 181.0  , 186.0  , 190.0  , 193.0  , 195.0  , 200.0  , 145.0  , 155.0  , 109.0  , 84.0  , 76.0  , 49.0  , 26.0  , 86.0  , 74.0  , 156.0  , 152.0  , 156.0  , 172.0  , 175.0  , 179.0  , 184.0  , 189.0  , 192.0  , 195.0  , 198.0  , 133.0  , 161.0  , 174.0  , 168.0  , 111.0  , 66.0  , 51.0  , 87.0  , 80.0  , 156.0  , 151.0  , 154.0  , 170.0  , 174.0  , 178.0  , 183.0  , 186.0  , 189.0  , 194.0  , 190.0  , 130.0  , 167.0  , 179.0  , 150.0  , 144.0  , 93.0  , 81.0  , 76.0  , 92.0  , 154.0  , 150.0  , 153.0  , 168.0  , 171.0  , 176.0  , 180.0  , 183.0  , 185.0  , 192.0  , 169.0  , 126.0  , 173.0  , 156.0  , 121.0  , 111.0  , 101.0  , 146.0  , 71.0  , 98.0  , 146.0  , 148.0  , 149.0  , 164.0  , 167.0  , 170.0  , 174.0  , 178.0  , 181.0  , 191.0  , 151.0  , 126.0  , 164.0  , 116.0  , 77.0  , 59.0  , 104.0  , 156.0  , 66.0  , 107.0  , 135.0  , 135.0  , 65.0  , 159.0  , 162.0  , 165.0  , 168.0  , 171.0  , 177.0  , 166.0  , 130.0  , 119.0  , 125.0  , 92.0  , 44.0  , 37.0  , 57.0  , 119.0  , 53.0  , 111.0  , 126.0  , 86.0  , 31.0  , 155.0  , 156.0  , 159.0  , 162.0  , 166.0  , 153.0  , 101.0  , 102.0  , 112.0  , 116.0  , 101.0  , 60.0  , 44.0  , 55.0  , 74.0  , 66.0  , 111.0  , 103.0  , 44.0  , 33.0  , 150.0  , 151.0  , 152.0  , 157.0  , 157.0  , 99.0  , 78.0  , 88.0  , 100.0  , 104.0  , 100.0  , 85.0  , 77.0  , 75.0  , 75.0  , 75.0  , 80.0  , 63.0  , 36.0  , 32.0  , 143.0  , 143.0  , 145.0  , 150.0  , 114.0  , 71.0  , 64.0  , 67.0  , 83.0  , 90.0  , 85.0  , 69.0  , 72.0  , 74.0  , 71.0  , 63.0  , 52.0  , 38.0  , 35.0  , 31.0  , 133.0  , 134.0  , 137.0  , 135.0  , 84.0  , 65.0  , 47.0  , 47.0  , 72.0  , 71.0  , 52.0  , 66.0  , 64.0  , 64.0  , 58.0  , 49.0  , 43.0  , 35.0  , 30.0  , 27.0  , 120.0  , 128.0  , 130.0  , 131.0  , 114.0  , 61.0  , 44.0  , 57.0  , 70.0  , 52.0  , 58.0  , 66.0  , 49.0  , 47.0  , 43.0  , 35.0  , 40.0  , 33.0  , 25.0  , 23.0 );
                        kernels[12] = compute_kernel(x,   75.0  , 125.0  , 166.0  , 181.0  , 183.0  , 172.0  , 170.0  , 187.0  , 194.0  , 133.0  , 157.0  , 183.0  , 180.0  , 173.0  , 166.0  , 161.0  , 86.0  , 116.0  , 161.0  , 160.0  , 88.0  , 145.0  , 173.0  , 190.0  , 196.0  , 196.0  , 189.0  , 183.0  , 188.0  , 135.0  , 171.0  , 144.0  , 140.0  , 175.0  , 172.0  , 162.0  , 80.0  , 133.0  , 163.0  , 164.0  , 139.0  , 162.0  , 176.0  , 194.0  , 197.0  , 199.0  , 203.0  , 203.0  , 191.0  , 135.0  , 106.0  , 67.0  , 53.0  , 78.0  , 153.0  , 160.0  , 70.0  , 143.0  , 162.0  , 165.0  , 175.0  , 166.0  , 174.0  , 195.0  , 199.0  , 203.0  , 207.0  , 212.0  , 184.0  , 82.0  , 92.0  , 145.0  , 129.0  , 58.0  , 67.0  , 149.0  , 69.0  , 153.0  , 161.0  , 167.0  , 184.0  , 187.0  , 190.0  , 196.0  , 202.0  , 204.0  , 209.0  , 214.0  , 167.0  , 70.0  , 71.0  , 106.0  , 105.0  , 72.0  , 33.0  , 95.0  , 74.0  , 162.0  , 162.0  , 167.0  , 183.0  , 186.0  , 191.0  , 196.0  , 201.0  , 206.0  , 210.0  , 213.0  , 148.0  , 126.0  , 148.0  , 163.0  , 73.0  , 46.0  , 29.0  , 68.0  , 84.0  , 167.0  , 162.0  , 166.0  , 181.0  , 185.0  , 191.0  , 196.0  , 201.0  , 206.0  , 211.0  , 210.0  , 138.0  , 188.0  , 215.0  , 191.0  , 153.0  , 103.0  , 44.0  , 73.0  , 93.0  , 166.0  , 160.0  , 165.0  , 180.0  , 184.0  , 188.0  , 195.0  , 199.0  , 204.0  , 209.0  , 200.0  , 138.0  , 190.0  , 184.0  , 149.0  , 150.0  , 117.0  , 69.0  , 75.0  , 104.0  , 163.0  , 160.0  , 164.0  , 175.0  , 180.0  , 186.0  , 192.0  , 198.0  , 203.0  , 208.0  , 179.0  , 136.0  , 176.0  , 148.0  , 139.0  , 129.0  , 91.0  , 125.0  , 79.0  , 112.0  , 156.0  , 158.0  , 157.0  , 172.0  , 175.0  , 180.0  , 187.0  , 186.0  , 172.0  , 153.0  , 134.0  , 120.0  , 117.0  , 120.0  , 114.0  , 94.0  , 134.0  , 164.0  , 67.0  , 119.0  , 144.0  , 143.0  , 65.0  , 166.0  , 170.0  , 176.0  , 166.0  , 122.0  , 114.0  , 123.0  , 110.0  , 118.0  , 89.0  , 73.0  , 73.0  , 50.0  , 86.0  , 143.0  , 58.0  , 121.0  , 134.0  , 89.0  , 33.0  , 161.0  , 165.0  , 168.0  , 124.0  , 100.0  , 95.0  , 105.0  , 99.0  , 117.0  , 79.0  , 47.0  , 43.0  , 40.0  , 39.0  , 68.0  , 55.0  , 123.0  , 110.0  , 47.0  , 37.0  , 155.0  , 160.0  , 146.0  , 95.0  , 82.0  , 74.0  , 64.0  , 85.0  , 95.0  , 72.0  , 42.0  , 37.0  , 36.0  , 43.0  , 53.0  , 65.0  , 75.0  , 65.0  , 39.0  , 36.0  , 150.0  , 149.0  , 110.0  , 80.0  , 67.0  , 53.0  , 53.0  , 72.0  , 76.0  , 70.0  , 53.0  , 38.0  , 38.0  , 46.0  , 58.0  , 69.0  , 65.0  , 43.0  , 40.0  , 35.0  , 143.0  , 127.0  , 89.0  , 71.0  , 53.0  , 38.0  , 51.0  , 62.0  , 65.0  , 70.0  , 57.0  , 47.0  , 43.0  , 46.0  , 59.0  , 60.0  , 62.0  , 42.0  , 34.0  , 32.0  , 129.0  , 124.0  , 84.0  , 64.0  , 51.0  , 48.0  , 43.0  , 60.0  , 59.0  , 51.0  , 49.0  , 53.0  , 45.0  , 49.0  , 56.0  , 56.0  , 52.0  , 36.0  , 30.0  , 28.0 );
                        kernels[13] = compute_kernel(x,   67.0  , 115.0  , 157.0  , 172.0  , 174.0  , 162.0  , 163.0  , 179.0  , 185.0  , 130.0  , 148.0  , 173.0  , 173.0  , 166.0  , 159.0  , 152.0  , 79.0  , 105.0  , 154.0  , 152.0  , 79.0  , 135.0  , 164.0  , 180.0  , 187.0  , 187.0  , 181.0  , 174.0  , 181.0  , 131.0  , 132.0  , 93.0  , 112.0  , 148.0  , 165.0  , 155.0  , 75.0  , 121.0  , 154.0  , 156.0  , 131.0  , 152.0  , 169.0  , 184.0  , 190.0  , 191.0  , 192.0  , 194.0  , 183.0  , 120.0  , 82.0  , 73.0  , 50.0  , 42.0  , 112.0  , 154.0  , 67.0  , 134.0  , 154.0  , 156.0  , 166.0  , 158.0  , 166.0  , 186.0  , 190.0  , 193.0  , 196.0  , 201.0  , 175.0  , 87.0  , 123.0  , 150.0  , 107.0  , 47.0  , 31.0  , 108.0  , 66.0  , 145.0  , 154.0  , 158.0  , 176.0  , 179.0  , 182.0  , 187.0  , 191.0  , 195.0  , 198.0  , 203.0  , 162.0  , 72.0  , 86.0  , 82.0  , 58.0  , 52.0  , 20.0  , 55.0  , 67.0  , 152.0  , 153.0  , 159.0  , 175.0  , 178.0  , 183.0  , 188.0  , 193.0  , 197.0  , 199.0  , 203.0  , 148.0  , 130.0  , 164.0  , 125.0  , 76.0  , 64.0  , 24.0  , 31.0  , 74.0  , 158.0  , 153.0  , 158.0  , 172.0  , 176.0  , 182.0  , 187.0  , 192.0  , 196.0  , 200.0  , 200.0  , 137.0  , 184.0  , 186.0  , 169.0  , 159.0  , 104.0  , 42.0  , 49.0  , 84.0  , 158.0  , 153.0  , 156.0  , 171.0  , 176.0  , 181.0  , 186.0  , 191.0  , 194.0  , 199.0  , 192.0  , 137.0  , 169.0  , 151.0  , 155.0  , 148.0  , 69.0  , 51.0  , 64.0  , 96.0  , 155.0  , 152.0  , 155.0  , 168.0  , 172.0  , 178.0  , 184.0  , 188.0  , 192.0  , 196.0  , 173.0  , 132.0  , 150.0  , 137.0  , 132.0  , 110.0  , 54.0  , 118.0  , 73.0  , 102.0  , 148.0  , 151.0  , 150.0  , 165.0  , 168.0  , 173.0  , 178.0  , 183.0  , 187.0  , 195.0  , 152.0  , 133.0  , 145.0  , 110.0  , 90.0  , 72.0  , 52.0  , 130.0  , 65.0  , 111.0  , 138.0  , 137.0  , 62.0  , 159.0  , 163.0  , 168.0  , 173.0  , 178.0  , 181.0  , 188.0  , 131.0  , 137.0  , 169.0  , 92.0  , 52.0  , 36.0  , 39.0  , 71.0  , 73.0  , 112.0  , 127.0  , 85.0  , 29.0  , 155.0  , 158.0  , 162.0  , 166.0  , 170.0  , 174.0  , 177.0  , 116.0  , 133.0  , 117.0  , 61.0  , 33.0  , 36.0  , 50.0  , 74.0  , 91.0  , 89.0  , 93.0  , 53.0  , 32.0  , 149.0  , 152.0  , 156.0  , 161.0  , 164.0  , 167.0  , 163.0  , 112.0  , 106.0  , 92.0  , 56.0  , 33.0  , 37.0  , 53.0  , 82.0  , 81.0  , 78.0  , 69.0  , 69.0  , 50.0  , 143.0  , 146.0  , 150.0  , 154.0  , 156.0  , 159.0  , 118.0  , 95.0  , 81.0  , 92.0  , 70.0  , 47.0  , 44.0  , 62.0  , 76.0  , 70.0  , 67.0  , 57.0  , 54.0  , 59.0  , 135.0  , 138.0  , 144.0  , 145.0  , 150.0  , 133.0  , 79.0  , 72.0  , 66.0  , 82.0  , 72.0  , 53.0  , 57.0  , 61.0  , 61.0  , 62.0  , 56.0  , 51.0  , 50.0  , 51.0  , 121.0  , 132.0  , 136.0  , 137.0  , 142.0  , 101.0  , 60.0  , 42.0  , 60.0  , 70.0  , 70.0  , 65.0  , 54.0  , 56.0  , 54.0  , 53.0  , 51.0  , 47.0  , 45.0  , 46.0 );
                        kernels[14] = compute_kernel(x,   67.0  , 117.0  , 157.0  , 171.0  , 173.0  , 162.0  , 161.0  , 177.0  , 182.0  , 128.0  , 145.0  , 167.0  , 166.0  , 162.0  , 157.0  , 152.0  , 80.0  , 106.0  , 152.0  , 149.0  , 80.0  , 136.0  , 164.0  , 179.0  , 184.0  , 185.0  , 178.0  , 172.0  , 178.0  , 124.0  , 158.0  , 174.0  , 172.0  , 167.0  , 160.0  , 153.0  , 74.0  , 121.0  , 153.0  , 153.0  , 131.0  , 151.0  , 167.0  , 183.0  , 187.0  , 188.0  , 189.0  , 191.0  , 178.0  , 128.0  , 167.0  , 181.0  , 173.0  , 169.0  , 165.0  , 148.0  , 65.0  , 133.0  , 153.0  , 155.0  , 167.0  , 158.0  , 165.0  , 185.0  , 188.0  , 191.0  , 193.0  , 198.0  , 168.0  , 132.0  , 177.0  , 149.0  , 74.0  , 71.0  , 123.0  , 145.0  , 62.0  , 143.0  , 153.0  , 156.0  , 175.0  , 178.0  , 180.0  , 187.0  , 189.0  , 193.0  , 194.0  , 199.0  , 156.0  , 145.0  , 161.0  , 65.0  , 97.0  , 85.0  , 42.0  , 99.0  , 67.0  , 151.0  , 152.0  , 156.0  , 174.0  , 177.0  , 181.0  , 186.0  , 190.0  , 193.0  , 195.0  , 198.0  , 143.0  , 157.0  , 149.0  , 67.0  , 91.0  , 98.0  , 43.0  , 46.0  , 77.0  , 156.0  , 152.0  , 156.0  , 172.0  , 176.0  , 181.0  , 185.0  , 189.0  , 192.0  , 195.0  , 196.0  , 131.0  , 164.0  , 157.0  , 120.0  , 112.0  , 75.0  , 48.0  , 52.0  , 85.0  , 157.0  , 151.0  , 154.0  , 171.0  , 175.0  , 180.0  , 185.0  , 188.0  , 189.0  , 193.0  , 187.0  , 129.0  , 168.0  , 169.0  , 169.0  , 172.0  , 141.0  , 96.0  , 57.0  , 96.0  , 153.0  , 150.0  , 153.0  , 169.0  , 173.0  , 178.0  , 182.0  , 185.0  , 187.0  , 190.0  , 168.0  , 126.0  , 170.0  , 180.0  , 158.0  , 133.0  , 113.0  , 122.0  , 72.0  , 100.0  , 144.0  , 148.0  , 147.0  , 166.0  , 168.0  , 173.0  , 176.0  , 180.0  , 182.0  , 188.0  , 147.0  , 127.0  , 169.0  , 159.0  , 106.0  , 81.0  , 65.0  , 86.0  , 66.0  , 112.0  , 136.0  , 133.0  , 61.0  , 160.0  , 164.0  , 167.0  , 171.0  , 173.0  , 175.0  , 181.0  , 125.0  , 125.0  , 131.0  , 109.0  , 72.0  , 40.0  , 33.0  , 43.0  , 69.0  , 100.0  , 120.0  , 83.0  , 30.0  , 155.0  , 159.0  , 162.0  , 165.0  , 166.0  , 168.0  , 170.0  , 107.0  , 101.0  , 102.0  , 100.0  , 88.0  , 54.0  , 38.0  , 57.0  , 74.0  , 70.0  , 71.0  , 48.0  , 33.0  , 151.0  , 152.0  , 155.0  , 160.0  , 159.0  , 160.0  , 160.0  , 90.0  , 74.0  , 70.0  , 90.0  , 81.0  , 63.0  , 59.0  , 63.0  , 65.0  , 57.0  , 58.0  , 49.0  , 31.0  , 145.0  , 147.0  , 150.0  , 152.0  , 151.0  , 154.0  , 133.0  , 70.0  , 57.0  , 57.0  , 76.0  , 75.0  , 59.0  , 61.0  , 59.0  , 55.0  , 44.0  , 50.0  , 48.0  , 31.0  , 136.0  , 139.0  , 142.0  , 143.0  , 142.0  , 148.0  , 106.0  , 58.0  , 46.0  , 46.0  , 60.0  , 44.0  , 57.0  , 55.0  , 49.0  , 41.0  , 42.0  , 50.0  , 48.0  , 30.0  , 123.0  , 131.0  , 134.0  , 134.0  , 134.0  , 140.0  , 89.0  , 54.0  , 43.0  , 55.0  , 52.0  , 51.0  , 63.0  , 38.0  , 40.0  , 30.0  , 36.0  , 52.0  , 49.0  , 32.0 );
                        kernels[15] = compute_kernel(x,   72.0  , 122.0  , 165.0  , 180.0  , 183.0  , 170.0  , 169.0  , 187.0  , 192.0  , 133.0  , 154.0  , 177.0  , 175.0  , 171.0  , 165.0  , 160.0  , 85.0  , 112.0  , 160.0  , 159.0  , 86.0  , 144.0  , 173.0  , 189.0  , 195.0  , 195.0  , 188.0  , 180.0  , 189.0  , 133.0  , 167.0  , 185.0  , 182.0  , 176.0  , 169.0  , 162.0  , 81.0  , 129.0  , 161.0  , 162.0  , 139.0  , 160.0  , 177.0  , 194.0  , 197.0  , 199.0  , 200.0  , 201.0  , 189.0  , 139.0  , 182.0  , 193.0  , 185.0  , 178.0  , 171.0  , 159.0  , 70.0  , 140.0  , 161.0  , 164.0  , 176.0  , 167.0  , 174.0  , 195.0  , 199.0  , 202.0  , 203.0  , 208.0  , 182.0  , 117.0  , 103.0  , 139.0  , 184.0  , 182.0  , 173.0  , 152.0  , 66.0  , 151.0  , 161.0  , 165.0  , 185.0  , 186.0  , 190.0  , 196.0  , 200.0  , 202.0  , 204.0  , 212.0  , 149.0  , 71.0  , 101.0  , 64.0  , 102.0  , 183.0  , 174.0  , 142.0  , 67.0  , 159.0  , 161.0  , 165.0  , 182.0  , 186.0  , 191.0  , 195.0  , 199.0  , 202.0  , 205.0  , 213.0  , 123.0  , 79.0  , 125.0  , 88.0  , 46.0  , 164.0  , 179.0  , 126.0  , 77.0  , 165.0  , 160.0  , 165.0  , 179.0  , 183.0  , 189.0  , 194.0  , 198.0  , 201.0  , 205.0  , 207.0  , 127.0  , 129.0  , 123.0  , 75.0  , 74.0  , 168.0  , 164.0  , 102.0  , 85.0  , 164.0  , 159.0  , 164.0  , 179.0  , 183.0  , 188.0  , 193.0  , 195.0  , 198.0  , 202.0  , 196.0  , 136.0  , 192.0  , 175.0  , 147.0  , 120.0  , 177.0  , 139.0  , 73.0  , 100.0  , 161.0  , 158.0  , 163.0  , 176.0  , 180.0  , 185.0  , 189.0  , 192.0  , 195.0  , 202.0  , 177.0  , 130.0  , 153.0  , 140.0  , 127.0  , 165.0  , 173.0  , 160.0  , 74.0  , 106.0  , 154.0  , 157.0  , 157.0  , 173.0  , 176.0  , 180.0  , 184.0  , 186.0  , 176.0  , 167.0  , 143.0  , 115.0  , 83.0  , 79.0  , 77.0  , 154.0  , 165.0  , 158.0  , 69.0  , 115.0  , 143.0  , 143.0  , 68.0  , 155.0  , 164.0  , 169.0  , 169.0  , 143.0  , 110.0  , 95.0  , 102.0  , 113.0  , 84.0  , 44.0  , 43.0  , 71.0  , 125.0  , 143.0  , 57.0  , 118.0  , 133.0  , 90.0  , 32.0  , 87.0  , 93.0  , 118.0  , 108.0  , 89.0  , 64.0  , 54.0  , 72.0  , 92.0  , 97.0  , 60.0  , 50.0  , 72.0  , 91.0  , 99.0  , 52.0  , 121.0  , 110.0  , 46.0  , 35.0  , 67.0  , 79.0  , 77.0  , 58.0  , 44.0  , 40.0  , 37.0  , 61.0  , 81.0  , 84.0  , 78.0  , 72.0  , 77.0  , 76.0  , 70.0  , 50.0  , 70.0  , 67.0  , 39.0  , 35.0  , 52.0  , 58.0  , 94.0  , 122.0  , 89.0  , 117.0  , 43.0  , 55.0  , 73.0  , 70.0  , 56.0  , 66.0  , 68.0  , 57.0  , 55.0  , 50.0  , 34.0  , 38.0  , 39.0  , 34.0  , 124.0  , 133.0  , 148.0  , 150.0  , 151.0  , 152.0  , 74.0  , 61.0  , 88.0  , 59.0  , 56.0  , 55.0  , 49.0  , 37.0  , 50.0  , 51.0  , 35.0  , 32.0  , 34.0  , 30.0  , 129.0  , 137.0  , 137.0  , 137.0  , 137.0  , 143.0  , 88.0  , 91.0  , 114.0  , 92.0  , 48.0  , 34.0  , 39.0  , 29.0  , 51.0  , 49.0  , 36.0  , 26.0  , 29.0  , 26.0 );
                        kernels[16] = compute_kernel(x,   70.0  , 120.0  , 159.0  , 173.0  , 177.0  , 166.0  , 163.0  , 179.0  , 184.0  , 128.0  , 148.0  , 170.0  , 168.0  , 163.0  , 159.0  , 153.0  , 81.0  , 107.0  , 153.0  , 152.0  , 83.0  , 140.0  , 167.0  , 182.0  , 188.0  , 188.0  , 182.0  , 174.0  , 179.0  , 125.0  , 161.0  , 176.0  , 173.0  , 169.0  , 161.0  , 154.0  , 76.0  , 124.0  , 154.0  , 156.0  , 135.0  , 154.0  , 171.0  , 186.0  , 190.0  , 192.0  , 194.0  , 193.0  , 180.0  , 132.0  , 170.0  , 183.0  , 177.0  , 171.0  , 163.0  , 150.0  , 67.0  , 136.0  , 154.0  , 158.0  , 169.0  , 162.0  , 168.0  , 188.0  , 191.0  , 194.0  , 197.0  , 200.0  , 170.0  , 115.0  , 95.0  , 112.0  , 173.0  , 174.0  , 165.0  , 144.0  , 64.0  , 145.0  , 154.0  , 158.0  , 178.0  , 179.0  , 183.0  , 190.0  , 192.0  , 195.0  , 197.0  , 200.0  , 154.0  , 70.0  , 99.0  , 73.0  , 106.0  , 178.0  , 166.0  , 134.0  , 65.0  , 153.0  , 153.0  , 158.0  , 176.0  , 178.0  , 185.0  , 190.0  , 193.0  , 196.0  , 197.0  , 198.0  , 131.0  , 116.0  , 135.0  , 77.0  , 82.0  , 177.0  , 168.0  , 117.0  , 73.0  , 158.0  , 153.0  , 157.0  , 173.0  , 177.0  , 183.0  , 189.0  , 192.0  , 194.0  , 195.0  , 192.0  , 123.0  , 167.0  , 172.0  , 128.0  , 126.0  , 171.0  , 153.0  , 94.0  , 83.0  , 158.0  , 152.0  , 156.0  , 173.0  , 177.0  , 182.0  , 188.0  , 191.0  , 191.0  , 194.0  , 183.0  , 120.0  , 132.0  , 118.0  , 123.0  , 172.0  , 167.0  , 132.0  , 68.0  , 97.0  , 155.0  , 152.0  , 155.0  , 171.0  , 174.0  , 179.0  , 185.0  , 188.0  , 189.0  , 188.0  , 159.0  , 117.0  , 98.0  , 57.0  , 110.0  , 174.0  , 164.0  , 152.0  , 70.0  , 104.0  , 147.0  , 150.0  , 148.0  , 167.0  , 169.0  , 174.0  , 178.0  , 182.0  , 176.0  , 130.0  , 113.0  , 116.0  , 104.0  , 65.0  , 66.0  , 114.0  , 150.0  , 149.0  , 63.0  , 111.0  , 136.0  , 134.0  , 59.0  , 162.0  , 164.0  , 168.0  , 172.0  , 171.0  , 123.0  , 87.0  , 88.0  , 102.0  , 105.0  , 84.0  , 92.0  , 90.0  , 102.0  , 137.0  , 52.0  , 114.0  , 126.0  , 83.0  , 30.0  , 156.0  , 159.0  , 162.0  , 165.0  , 140.0  , 87.0  , 71.0  , 59.0  , 85.0  , 86.0  , 83.0  , 89.0  , 75.0  , 68.0  , 86.0  , 46.0  , 116.0  , 102.0  , 43.0  , 34.0  , 151.0  , 152.0  , 155.0  , 157.0  , 118.0  , 80.0  , 57.0  , 49.0  , 59.0  , 56.0  , 78.0  , 65.0  , 57.0  , 64.0  , 34.0  , 28.0  , 66.0  , 61.0  , 36.0  , 33.0  , 144.0  , 146.0  , 147.0  , 147.0  , 125.0  , 80.0  , 49.0  , 56.0  , 58.0  , 39.0  , 30.0  , 39.0  , 63.0  , 74.0  , 42.0  , 22.0  , 32.0  , 37.0  , 36.0  , 32.0  , 135.0  , 138.0  , 139.0  , 136.0  , 114.0  , 77.0  , 45.0  , 53.0  , 63.0  , 64.0  , 49.0  , 43.0  , 65.0  , 70.0  , 29.0  , 25.0  , 33.0  , 30.0  , 31.0  , 29.0  , 121.0  , 130.0  , 131.0  , 128.0  , 94.0  , 57.0  , 58.0  , 61.0  , 61.0  , 66.0  , 46.0  , 39.0  , 54.0  , 61.0  , 23.0  , 30.0  , 34.0  , 25.0  , 28.0  , 25.0 );
                        kernels[17] = compute_kernel(x,   72.0  , 123.0  , 165.0  , 180.0  , 183.0  , 170.0  , 169.0  , 187.0  , 191.0  , 133.0  , 154.0  , 177.0  , 175.0  , 171.0  , 165.0  , 159.0  , 84.0  , 111.0  , 160.0  , 159.0  , 86.0  , 144.0  , 172.0  , 189.0  , 194.0  , 195.0  , 187.0  , 181.0  , 187.0  , 131.0  , 169.0  , 189.0  , 182.0  , 176.0  , 169.0  , 161.0  , 78.0  , 129.0  , 161.0  , 162.0  , 139.0  , 160.0  , 177.0  , 193.0  , 197.0  , 199.0  , 200.0  , 200.0  , 188.0  , 137.0  , 156.0  , 141.0  , 179.0  , 180.0  , 171.0  , 157.0  , 70.0  , 140.0  , 160.0  , 164.0  , 175.0  , 166.0  , 174.0  , 194.0  , 199.0  , 202.0  , 203.0  , 208.0  , 180.0  , 114.0  , 96.0  , 88.0  , 90.0  , 174.0  , 174.0  , 151.0  , 66.0  , 150.0  , 160.0  , 164.0  , 185.0  , 186.0  , 190.0  , 196.0  , 200.0  , 202.0  , 203.0  , 208.0  , 166.0  , 98.0  , 94.0  , 101.0  , 48.0  , 123.0  , 179.0  , 142.0  , 66.0  , 158.0  , 159.0  , 165.0  , 183.0  , 185.0  , 191.0  , 196.0  , 200.0  , 202.0  , 203.0  , 206.0  , 149.0  , 151.0  , 182.0  , 129.0  , 60.0  , 122.0  , 181.0  , 125.0  , 75.0  , 164.0  , 159.0  , 164.0  , 180.0  , 184.0  , 189.0  , 194.0  , 199.0  , 202.0  , 203.0  , 204.0  , 135.0  , 166.0  , 170.0  , 145.0  , 96.0  , 162.0  , 163.0  , 98.0  , 85.0  , 164.0  , 159.0  , 164.0  , 177.0  , 182.0  , 186.0  , 192.0  , 196.0  , 199.0  , 196.0  , 188.0  , 136.0  , 135.0  , 113.0  , 103.0  , 159.0  , 176.0  , 138.0  , 72.0  , 99.0  , 161.0  , 158.0  , 162.0  , 174.0  , 178.0  , 184.0  , 189.0  , 178.0  , 151.0  , 129.0  , 127.0  , 126.0  , 114.0  , 59.0  , 83.0  , 184.0  , 172.0  , 158.0  , 74.0  , 106.0  , 154.0  , 157.0  , 156.0  , 173.0  , 175.0  , 174.0  , 152.0  , 118.0  , 98.0  , 95.0  , 97.0  , 120.0  , 120.0  , 77.0  , 59.0  , 122.0  , 159.0  , 158.0  , 68.0  , 116.0  , 143.0  , 142.0  , 66.0  , 121.0  , 127.0  , 123.0  , 98.0  , 82.0  , 76.0  , 78.0  , 83.0  , 115.0  , 114.0  , 96.0  , 84.0  , 86.0  , 104.0  , 137.0  , 56.0  , 118.0  , 133.0  , 90.0  , 31.0  , 67.0  , 81.0  , 74.0  , 75.0  , 49.0  , 59.0  , 56.0  , 88.0  , 100.0  , 86.0  , 84.0  , 94.0  , 91.0  , 80.0  , 95.0  , 50.0  , 121.0  , 110.0  , 47.0  , 35.0  , 58.0  , 91.0  , 141.0  , 160.0  , 116.0  , 96.0  , 62.0  , 87.0  , 81.0  , 58.0  , 79.0  , 73.0  , 64.0  , 77.0  , 71.0  , 30.0  , 70.0  , 66.0  , 39.0  , 35.0  , 134.0  , 149.0  , 152.0  , 151.0  , 155.0  , 101.0  , 66.0  , 78.0  , 65.0  , 59.0  , 57.0  , 43.0  , 39.0  , 75.0  , 93.0  , 27.0  , 34.0  , 38.0  , 37.0  , 34.0  , 139.0  , 139.0  , 140.0  , 138.0  , 136.0  , 83.0  , 59.0  , 59.0  , 65.0  , 46.0  , 31.0  , 32.0  , 31.0  , 49.0  , 99.0  , 52.0  , 32.0  , 31.0  , 33.0  , 30.0  , 124.0  , 130.0  , 131.0  , 128.0  , 110.0  , 66.0  , 59.0  , 50.0  , 56.0  , 37.0  , 26.0  , 33.0  , 26.0  , 28.0  , 79.0  , 75.0  , 38.0  , 26.0  , 28.0  , 25.0 );
                        kernels[18] = compute_kernel(x,   73.0  , 121.0  , 161.0  , 172.0  , 174.0  , 163.0  , 163.0  , 178.0  , 184.0  , 128.0  , 148.0  , 170.0  , 168.0  , 164.0  , 159.0  , 154.0  , 79.0  , 107.0  , 152.0  , 152.0  , 84.0  , 139.0  , 165.0  , 181.0  , 187.0  , 187.0  , 181.0  , 173.0  , 179.0  , 125.0  , 161.0  , 177.0  , 173.0  , 169.0  , 162.0  , 154.0  , 74.0  , 124.0  , 154.0  , 155.0  , 132.0  , 154.0  , 170.0  , 185.0  , 188.0  , 190.0  , 192.0  , 193.0  , 181.0  , 131.0  , 169.0  , 179.0  , 176.0  , 170.0  , 163.0  , 150.0  , 66.0  , 135.0  , 154.0  , 156.0  , 168.0  , 160.0  , 167.0  , 187.0  , 190.0  , 193.0  , 196.0  , 200.0  , 170.0  , 135.0  , 176.0  , 186.0  , 178.0  , 170.0  , 166.0  , 144.0  , 63.0  , 145.0  , 154.0  , 158.0  , 177.0  , 178.0  , 182.0  , 188.0  , 192.0  , 196.0  , 197.0  , 201.0  , 157.0  , 144.0  , 183.0  , 142.0  , 84.0  , 90.0  , 153.0  , 135.0  , 65.0  , 153.0  , 154.0  , 157.0  , 175.0  , 179.0  , 183.0  , 188.0  , 192.0  , 196.0  , 197.0  , 200.0  , 141.0  , 159.0  , 130.0  , 33.0  , 73.0  , 97.0  , 104.0  , 119.0  , 75.0  , 158.0  , 153.0  , 157.0  , 173.0  , 177.0  , 182.0  , 187.0  , 191.0  , 195.0  , 197.0  , 197.0  , 131.0  , 165.0  , 77.0  , 53.0  , 110.0  , 137.0  , 133.0  , 95.0  , 83.0  , 158.0  , 152.0  , 156.0  , 173.0  , 176.0  , 181.0  , 186.0  , 189.0  , 192.0  , 195.0  , 187.0  , 130.0  , 173.0  , 88.0  , 84.0  , 104.0  , 150.0  , 167.0  , 83.0  , 95.0  , 155.0  , 152.0  , 155.0  , 170.0  , 174.0  , 179.0  , 184.0  , 187.0  , 189.0  , 192.0  , 168.0  , 125.0  , 175.0  , 134.0  , 50.0  , 87.0  , 124.0  , 118.0  , 61.0  , 104.0  , 147.0  , 150.0  , 148.0  , 166.0  , 170.0  , 174.0  , 178.0  , 182.0  , 185.0  , 190.0  , 145.0  , 127.0  , 172.0  , 176.0  , 110.0  , 78.0  , 76.0  , 102.0  , 59.0  , 112.0  , 137.0  , 134.0  , 61.0  , 162.0  , 165.0  , 169.0  , 173.0  , 175.0  , 177.0  , 181.0  , 124.0  , 131.0  , 154.0  , 140.0  , 104.0  , 78.0  , 43.0  , 93.0  , 54.0  , 117.0  , 127.0  , 82.0  , 30.0  , 156.0  , 159.0  , 162.0  , 166.0  , 167.0  , 168.0  , 170.0  , 108.0  , 116.0  , 112.0  , 116.0  , 102.0  , 72.0  , 65.0  , 71.0  , 69.0  , 97.0  , 99.0  , 43.0  , 34.0  , 151.0  , 154.0  , 156.0  , 160.0  , 160.0  , 162.0  , 158.0  , 92.0  , 87.0  , 101.0  , 109.0  , 97.0  , 87.0  , 86.0  , 83.0  , 78.0  , 67.0  , 62.0  , 37.0  , 33.0  , 145.0  , 146.0  , 150.0  , 152.0  , 152.0  , 155.0  , 135.0  , 74.0  , 68.0  , 88.0  , 83.0  , 81.0  , 71.0  , 75.0  , 72.0  , 65.0  , 53.0  , 56.0  , 37.0  , 31.0  , 136.0  , 139.0  , 142.0  , 142.0  , 142.0  , 140.0  , 90.0  , 62.0  , 51.0  , 59.0  , 69.0  , 49.0  , 66.0  , 60.0  , 58.0  , 51.0  , 48.0  , 54.0  , 37.0  , 28.0  , 122.0  , 130.0  , 134.0  , 133.0  , 133.0  , 129.0  , 75.0  , 56.0  , 43.0  , 64.0  , 54.0  , 52.0  , 57.0  , 46.0  , 53.0  , 43.0  , 46.0  , 54.0  , 41.0  , 24.0 );
                        kernels[19] = compute_kernel(x,   67.0  , 118.0  , 157.0  , 171.0  , 173.0  , 162.0  , 160.0  , 176.0  , 183.0  , 127.0  , 146.0  , 169.0  , 170.0  , 167.0  , 161.0  , 152.0  , 79.0  , 106.0  , 152.0  , 151.0  , 80.0  , 137.0  , 164.0  , 179.0  , 185.0  , 185.0  , 179.0  , 173.0  , 179.0  , 124.0  , 160.0  , 173.0  , 126.0  , 100.0  , 134.0  , 157.0  , 73.0  , 123.0  , 154.0  , 155.0  , 132.0  , 153.0  , 168.0  , 183.0  , 187.0  , 189.0  , 191.0  , 193.0  , 180.0  , 130.0  , 170.0  , 151.0  , 106.0  , 68.0  , 39.0  , 96.0  , 65.0  , 134.0  , 154.0  , 157.0  , 167.0  , 159.0  , 165.0  , 184.0  , 188.0  , 191.0  , 195.0  , 200.0  , 169.0  , 137.0  , 157.0  , 100.0  , 72.0  , 86.0  , 37.0  , 23.0  , 51.0  , 145.0  , 154.0  , 158.0  , 175.0  , 177.0  , 180.0  , 186.0  , 189.0  , 192.0  , 195.0  , 201.0  , 158.0  , 144.0  , 194.0  , 178.0  , 127.0  , 100.0  , 41.0  , 16.0  , 46.0  , 152.0  , 153.0  , 158.0  , 174.0  , 176.0  , 181.0  , 187.0  , 190.0  , 194.0  , 196.0  , 201.0  , 142.0  , 156.0  , 184.0  , 194.0  , 185.0  , 110.0  , 56.0  , 30.0  , 50.0  , 155.0  , 153.0  , 157.0  , 172.0  , 175.0  , 179.0  , 184.0  , 189.0  , 194.0  , 197.0  , 198.0  , 133.0  , 164.0  , 172.0  , 164.0  , 137.0  , 55.0  , 62.0  , 51.0  , 70.0  , 157.0  , 151.0  , 155.0  , 171.0  , 174.0  , 178.0  , 183.0  , 188.0  , 191.0  , 196.0  , 189.0  , 132.0  , 159.0  , 129.0  , 125.0  , 107.0  , 65.0  , 50.0  , 25.0  , 96.0  , 154.0  , 151.0  , 155.0  , 168.0  , 171.0  , 176.0  , 180.0  , 185.0  , 189.0  , 194.0  , 170.0  , 128.0  , 176.0  , 127.0  , 73.0  , 54.0  , 47.0  , 49.0  , 47.0  , 106.0  , 147.0  , 150.0  , 148.0  , 164.0  , 167.0  , 170.0  , 175.0  , 180.0  , 184.0  , 193.0  , 148.0  , 130.0  , 165.0  , 122.0  , 52.0  , 45.0  , 50.0  , 71.0  , 66.0  , 111.0  , 137.0  , 134.0  , 59.0  , 159.0  , 162.0  , 166.0  , 169.0  , 174.0  , 178.0  , 186.0  , 132.0  , 125.0  , 117.0  , 84.0  , 57.0  , 59.0  , 59.0  , 66.0  , 84.0  , 93.0  , 104.0  , 84.0  , 30.0  , 153.0  , 156.0  , 159.0  , 164.0  , 166.0  , 172.0  , 158.0  , 123.0  , 109.0  , 108.0  , 96.0  , 64.0  , 53.0  , 57.0  , 78.0  , 85.0  , 80.0  , 69.0  , 66.0  , 41.0  , 148.0  , 151.0  , 154.0  , 158.0  , 160.0  , 160.0  , 102.0  , 95.0  , 83.0  , 96.0  , 88.0  , 75.0  , 59.0  , 64.0  , 77.0  , 75.0  , 73.0  , 58.0  , 50.0  , 43.0  , 142.0  , 143.0  , 148.0  , 151.0  , 155.0  , 129.0  , 67.0  , 62.0  , 70.0  , 83.0  , 82.0  , 68.0  , 63.0  , 68.0  , 65.0  , 70.0  , 58.0  , 45.0  , 41.0  , 35.0  , 133.0  , 136.0  , 141.0  , 142.0  , 143.0  , 88.0  , 54.0  , 49.0  , 59.0  , 69.0  , 70.0  , 60.0  , 58.0  , 57.0  , 58.0  , 51.0  , 38.0  , 38.0  , 34.0  , 34.0  , 120.0  , 128.0  , 132.0  , 135.0  , 113.0  , 61.0  , 45.0  , 36.0  , 48.0  , 58.0  , 50.0  , 42.0  , 53.0  , 48.0  , 45.0  , 34.0  , 35.0  , 32.0  , 31.0  , 34.0 );
                        float decision = 0.0;
                        decision = decision - ( + kernels[0] * -1.0  + kernels[1] * -1.0  + kernels[2] * -1.0  + kernels[3] * -1.0  + kernels[4] * -1.0  + kernels[5] * -1.0  + kernels[6] * -1.0  + kernels[7] * -1.0  + kernels[8] * -1.0  + kernels[9] * -1.0 );
                        decision = decision - ( + kernels[10] * 1.0  + kernels[11] * 1.0  + kernels[12] * 1.0  + kernels[13] * 1.0  + kernels[14] * 1.0  + kernels[15] * 1.0  + kernels[16] * 1.0  + kernels[17] * 1.0  + kernels[18] * 1.0  + kernels[19] * 1.0 );

                        return decision > 0 ? 0 : 1;
                    }

                protected:
                    /**
                    * Compute kernel between feature vector and support vector.
                    * Kernel type: rbf
                    */
                    float compute_kernel(float *x, ...) {
                        va_list w;
                        va_start(w, 320);
                        float kernel = 0.0;

                        for (uint16_t i = 0; i < 320; i++) {
                            kernel += pow(x[i] - va_arg(w, double), 2);
                        }

                        return exp(-0.001 * kernel);
                    }
                };
            }
        }
    }
